0.06842 -0.05698 0.03552 -0.59033 -0.11169 0.19360 -0.82861 0.19922 0.02094 -0.05148 -0.58691 -0.49023 -0.19495 0.80469 0.18604 -0.04431 0.11700 0.02019 -0.96387 0.06708 1.62598 0.32666 0.42017 -0.01407 0.05225 0.00025 -1.16016 0.05368 1.08789 0.30933 0.44409 -0.09149 0.01843 0.01930 -0.70068 1.17090 1.73730 -0.00703 -0.23926 0.02023 0.08405 0.09454 1.12793 1.99121 1.36230 -0.35645 -0.39844 0.07697 0.10736 0.09192 0.46509 0.15088 0.09869 0.66406 0.16382 0.07550 0.08710 -0.03201 -0.42432 -0.09692 0.81641 0.86963 0.64014 0.61963
-0.00760 -0.04089 0.03781 0.49390 0.58496 -0.38623 -0.01295 0.27832 -0.06482 -0.08258 0.50928 0.01921 0.36914 0.96191 0.16064 0.03198 -0.09247 -0.24255 -0.57324 -0.26709 0.85938 2.00586 0.33813 -0.03011 0.07574 -0.37549 -0.57178 0.03171 0.05798 0.82812 1.00098 0.01353 0.11157 0.57520 0.04434 0.18921 -0.03433 0.49683 0.65088 0.11096 0.00019 1.01367 0.86719 0.35425 0.62451 0.10217 0.03009 0.03653 0.08112 -0.18884 0.09680 -0.43433 -0.83789 -0.53662 -0.53174 -0.10504 0.08008 0.02837 -0.21619 -0.04904 0.15686 -0.88281 -0.87500 -0.33032
-0.02518 0.06195 0.72070 0.85742 0.81641 0.94824 0.87305 -0.27075 0.05353 0.46924 0.88672 0.29517 0.50244 0.93066 0.22681 -0.19983 0.00369 0.45801 -1.02637 -0.73584 1.29785 1.13672 -0.14758 -0.10345 0.07678 -0.57715 -1.54590 0.39795 1.52734 0.16162 -0.46875 -0.06476 0.00536 -0.32861 -0.96533 0.28247 0.32104 -0.29541 -0.20398 0.09491 -0.00116 -0.13965 -0.91357 0.18713 0.29883 0.18567 -0.33032 -0.06378 0.03763 0.09503 0.14905 -0.77148 0.34839 0.14661 0.06433 0.19446 0.12085 0.12878 1.02832 0.48047 0.83447 0.21741 0.62109 -0.22693
